{"voxel_size": 0.0026781375, "block_size": 30, "grid_width": 1001, "grid_height": 527, "grid_depth": 966, "atlas_width": 2048, "atlas_height": 2048, "atlas_depth": 32, "num_slices": 8, "min_x": -1.28594375, "min_y": -0.24649999999999994, "min_z": -1.3838, "atlas_blocks_x": 64, "atlas_blocks_y": 64, "atlas_blocks_z": 1, "input_height": 800.0, "input_width": 800.0, "input_focal": 1111.1110311937682, "worldspace_T_opengl": [[-1.0, 0.0, 0.0, 0.0], [0.0, 0.0, 1.0, 0.0], [0.0, 1.0, 0.0, 0.0], [0.0, 0.0, 0.0, 1.0]], "ndc": false, "0_weights": [[0.43800389766693115, 0.23750101029872894, -0.4390867054462433, 0.14414817094802856, -0.21678362786769867, -0.10172943025827408, -0.2801503837108612, 0.07946902513504028, 0.16592669486999512, 0.16770216822624207, -0.021846668794751167, -0.12847813963890076, 0.027930203825235367, -0.246748685836792, 0.3158496618270874, -0.05845540016889572], [-0.21768172085285187, 0.2791081666946411, -0.007245366927236319, 0.1561024934053421, -0.25880277156829834, -0.31330278515815735, 0.06136082485318184, 0.10637792944908142, 0.7277156114578247, -0.16721931099891663, -0.10820484906435013, -0.003922417759895325, 0.22063851356506348, 0.0673142671585083, 0.04625612124800682, 0.4435770809650421], [0.35116448998451233, 0.06690802425146103, 0.05006954073905945, 0.40005573630332947, -0.1443866640329361, 0.23504327237606049, 0.284153014421463, -0.043139729648828506, -0.18984101712703705, 0.31568530201911926, 0.0468929149210453, 0.16155779361724854, -0.17140880227088928, -0.2983461320400238, 0.13736188411712646, -0.28956493735313416], [0.38320302963256836, -0.031088808551430702, -0.1722450703382492, 0.21398156881332397, -0.27078157663345337, 0.19640184938907623, 0.21231529116630554, 0.22956714034080505, 0.47211194038391113, 0.1569855660200119, -0.34660881757736206, -0.19880914688110352, -0.18071499466896057, -0.17869047820568085, -0.11454244703054428, 0.10945083945989609], [-0.15264417231082916, -0.2311805933713913, 0.27804285287857056, 0.4529893100261688, 0.13675051927566528, -0.3089921176433563, 0.38582882285118103, 0.1628871113061905, 0.3415601849555969, 0.22319439053535461, 0.08420778065919876, -0.07058185338973999, -0.08761673420667648, -0.24761825799942017, 0.19621801376342773, -0.10995298624038696], [0.10812317579984665, 0.08876850455999374, 0.08462966233491898, -0.26618868112564087, -0.2963401973247528, 3.8812471757410094e-05, -0.3245435953140259, -0.10819265991449356, 0.26427993178367615, -0.28081032633781433, -0.21717824041843414, 0.038191985338926315, 0.33570772409439087, 0.033227551728487015, -0.1650467962026596, -0.23676982522010803], [-0.10185324400663376, 0.15752676129341125, 0.22234216332435608, 0.3240164816379547, 0.08951650559902191, 0.15980838239192963, -0.2689000070095062, 0.12910008430480957, 0.13102594017982483, -0.1549988090991974, 0.07284090667963028, -0.15029902756214142, 0.0365334153175354, -0.09292140603065491, 0.034802015870809555, 0.2940318286418915], [0.016430042684078217, 0.13143090903759003, 0.3017251789569855, -0.06704764813184738, -0.061137739568948746, 0.26518750190734863, -0.08727431297302246, -0.05500509589910507, 0.23121967911720276, -0.12667985260486603, -0.010559814982116222, 0.33091938495635986, 0.18541674315929413, 0.18506552278995514, -0.27644312381744385, 0.1349051296710968], [-0.2876521348953247, 0.2100280076265335, 0.17581455409526825, 0.2819468379020691, -0.06548923254013062, 0.05743328854441643, -0.10391811281442642, 0.08637223392724991, -0.18304581940174103, 0.04748847708106041, -0.16428792476654053, 0.12606661021709442, 0.09447821229696274, 0.21332183480262756, -0.05417369678616524, -0.07047002762556076], [-0.025735005736351013, -0.1674174964427948, 0.19104492664337158, -0.24551363289356232, 0.03469463065266609, 0.10452829301357269, -0.08887021243572235, 0.03196320682764053, -0.02947482280433178, 0.05435781553387642, 0.06914056092500687, 0.020068734884262085, -0.020379947498440742, -0.09778814017772675, 0.11199328303337097, -0.24363505840301514], [-0.13395673036575317, 0.015782726928591728, -0.1449778825044632, 0.0429285429418087, 0.25069916248321533, -0.08643832802772522, -0.02700159139931202, -0.08848413079977036, -0.12563058733940125, 0.07749802619218826, -0.25310638546943665, -0.07789793610572815, -0.1437251716852188, -0.05447068437933922, 0.07449975609779358, -0.12284951657056808], [-0.06088635325431824, 0.009509742259979248, -0.06942658871412277, -0.2713174819946289, -0.34845590591430664, -0.21618439257144928, 0.03205832839012146, 0.26682665944099426, -0.12053123861551285, 0.038896575570106506, 0.09908981621265411, 0.07555054873228073, -0.04902132973074913, 0.06578397750854492, 0.19404074549674988, 0.17329217493534088], [0.008866558782756329, 0.06358575820922852, 0.015134592540562153, -0.04998600110411644, 0.04470449313521385, -0.011025955900549889, 0.0050478181801736355, 0.003925515338778496, 0.11034256964921951, -0.038320306688547134, -0.0016010231338441372, 0.02984953112900257, 0.0037496520671993494, 0.018624983727931976, 0.03663261979818344, -0.009166655130684376], [-0.07683396339416504, -0.003957373555749655, -0.02018687315285206, -0.12648597359657288, -0.024115851148962975, 0.022909492254257202, 0.0071716709062457085, -0.16419102251529694, 0.10726237297058105, -0.015606870874762535, -0.008049668744206429, -0.03356102481484413, 0.02476019784808159, 0.0031169417779892683, -0.0381288081407547, 0.030637772753834724], [0.012331385165452957, -0.05945761874318123, -0.06523501873016357, 0.028591467067599297, 0.10173817723989487, -0.09470826387405396, 0.017487430945038795, 0.2653966546058655, -0.16471098363399506, -0.003758807200938463, -0.09123923629522324, -0.055837057530879974, -0.02178196795284748, 0.10963664203882217, 0.004748087842017412, -0.13933022320270538], [0.14606814086437225, 0.0438821017742157, 0.3007441759109497, -0.2981550395488739, -0.12939444184303284, 0.3328610360622406, 0.24769257009029388, -0.19351966679096222, -0.2997790277004242, -0.028470687568187714, 0.271107941865921, -0.06693733483552933, -0.30285486578941345, 0.37527161836624146, -0.40568235516548157, -0.17040731012821198], [-0.3047020137310028, -0.2706368863582611, 0.2997133135795593, -0.26258769631385803, 0.11253011226654053, 0.04719331115484238, 0.2170952707529068, -0.24184982478618622, -0.36730730533599854, -0.23398549854755402, 0.07585172355175018, 0.3348240852355957, -0.3283842206001282, 0.39496108889579773, -0.002096918411552906, -0.034894909709692], [-0.28039366006851196, -0.3370647728443146, -0.24698896706104279, 0.2817455530166626, -0.054340776056051254, 0.24636024236679077, -0.027550945058465004, -0.20155639946460724, -0.4023851454257965, 0.3472166061401367, 0.3611644208431244, 0.04333139955997467, 0.1865585744380951, -0.02837505377829075, -0.040631234645843506, -0.2605511546134949], [-0.09140197932720184, -0.17502576112747192, -0.21356777846813202, 0.1590249091386795, 0.2370634824037552, 0.09511446952819824, -0.11488140374422073, -0.1264277696609497, -0.4071100950241089, 0.39379844069480896, -0.016291236504912376, 0.01899363100528717, -0.18817169964313507, -0.23183496296405792, -0.17118626832962036, 0.2688097357749939], [0.027257440611720085, 0.24361979961395264, 0.22461825609207153, -0.4960317313671112, 0.3728160858154297, 0.032507751137018204, -0.24724800884723663, 0.11614667624235153, -0.050236888229846954, 0.04099245369434357, -0.2446470558643341, -0.03290184214711189, 0.21856087446212769, -0.23519043624401093, -0.4023274779319763, 0.29394295811653137], [-0.20889703929424286, 0.38887685537338257, -0.07589498162269592, 0.1573258638381958, 0.17955416440963745, -0.23588161170482635, -0.07118936628103256, -0.2359086275100708, -0.24509325623512268, 0.2626614272594452, 0.2059943974018097, 0.4242939054965973, -0.0227501317858696, 0.08004274219274521, 0.34895187616348267, 0.21630676090717316], [0.024894410744309425, 0.05403343215584755, 0.0808212086558342, 0.11716446280479431, 0.1409352868795395, -0.12782832980155945, -0.11231554299592972, 0.19634833931922913, -0.258994460105896, -0.07409203052520752, -0.07603632658720016, 0.0573589950799942, 0.07630519568920135, 0.06894838809967041, 0.18404118716716766, -0.10736832022666931], [0.0038787818048149347, -0.5138337016105652, -0.18552345037460327, 0.6095594167709351, -0.21993932127952576, -0.05654803663492203, -0.0424325130879879, -0.12936627864837646, -0.0711376741528511, 0.09317540377378464, 0.18827471137046814, -0.09812082350254059, -0.022782621905207634, 0.008463302627205849, 0.2244425117969513, -0.03219195455312729], [0.23017561435699463, 0.06208072230219841, -0.1981428563594818, -0.3074679672718048, 0.07579461485147476, -0.07102300971746445, 0.18801161646842957, 0.278543621301651, -0.038548048585653305, -0.10109715163707733, -0.11049104481935501, -0.22066444158554077, 0.10332714021205902, 0.05567321926355362, -0.4083116352558136, -0.08494842052459717], [0.010700052604079247, -0.061686716973781586, -0.050427671521902084, -0.055758219212293625, 0.02087477408349514, -0.027328794822096825, 0.042622458189725876, -0.12349777668714523, -0.05178237333893776, -0.005624485667794943, -0.06942771375179291, 0.017216861248016357, 0.016548549756407738, 0.06769460439682007, -0.028674902394413948, 0.06180260702967644], [-0.004723334684967995, -0.12532378733158112, 0.026137547567486763, -0.006895333528518677, -0.09280338138341904, 0.004705841187387705, 0.04569464176893234, -0.19618290662765503, -0.14070844650268555, -0.033871717751026154, 0.06583112478256226, -0.008257975801825523, -0.02141638658940792, 0.0015924513572826982, -0.06273562461137772, 0.0017190304351970553], [0.04189411178231239, -0.17625759541988373, -0.010943271219730377, 0.07059893012046814, -0.09444648772478104, 0.011822107248008251, -0.0012245416874065995, -0.07781609147787094, 0.20497453212738037, -0.03128161281347275, 0.1194344311952591, -0.0619223527610302, 0.014620187692344189, 0.02607261762022972, -0.10571616888046265, -0.025159919634461403], [0.6786588430404663, -0.1988009512424469, 0.9909734129905701, 1.0083297491073608, -0.03324276581406593, -0.5656565427780151, 0.4358122646808624, -0.24209930002689362, 0.4114364981651306, 0.8974272608757019, 0.6091984510421753, -0.4349168539047241, -0.22259768843650818, 0.6083256602287292, 0.910796582698822, -0.12818105518817902], [0.5936658978462219, 0.7339420318603516, 0.23555031418800354, 0.18726147711277008, 0.08860596269369125, -0.3413187265396118, 0.8403887152671814, -0.14489959180355072, -0.04880587384104729, 1.0330944061279297, 0.3395400047302246, -0.09528589993715286, -0.5345990657806396, 0.24256868660449982, 0.4821855425834656, 0.26737192273139954], [-0.7070011496543884, 0.8188830018043518, -0.21544910967350006, -0.38944587111473083, -0.10715879499912262, 0.039395976811647415, -1.631577491760254, 0.0750298723578453, -0.01623670384287834, -0.046451885253190994, -0.867192804813385, 0.8796148300170898, 1.2223602533340454, 0.669835090637207, -1.3983772993087769, -0.39396026730537415], [0.3651914894580841, 0.8526493906974792, -0.7474963068962097, 0.8255283236503601, -0.33333733677864075, -0.2628277540206909, 0.3047496974468231, 0.21833960711956024, 0.8591434359550476, -1.2736988067626953, -0.7693743705749512, -0.06585004180669785, -0.0355520099401474, -1.2016847133636475, 0.5974574685096741, -0.9989906549453735], [-2.209718704223633, -0.8469104766845703, -0.5859825015068054, -0.96238774061203, 0.2354319542646408, 0.7733058333396912, 0.5013304948806763, -0.10936235636472702, -0.296906054019928, -0.7996571063995361, 0.6160467267036438, 1.3495702743530273, 0.03151578828692436, 0.18036668002605438, 0.1965731680393219, 0.9855690598487854], [0.9070084095001221, -0.6036633849143982, -0.6019037961959839, -0.028989575803279877, -0.21315836906433105, 1.6078529357910156, 1.3172314167022705, 0.15711840987205505, -0.6584192514419556, -0.9751010537147522, 0.8047261834144592, -1.69141685962677, 0.06920646876096725, 0.9207310676574707, 0.11706095188856125, 1.3337522745132446], [1.1692101955413818, 0.7319431304931641, 0.8697529435157776, -0.9826457500457764, -1.9509159326553345, -0.6928237676620483, -0.5403945446014404, -0.11801613867282867, -0.073998361825943, 0.5168145895004272, -1.6931397914886475, 0.6175252795219421, 1.785577654838562, -0.250990629196167, -0.29634201526641846, 0.346634179353714]], "1_weights": [[-0.7547526955604553, -0.21371769905090332, -0.6674889326095581, -0.3842757046222687, -0.76023930311203, -0.5545743107795715, -0.19898158311843872, -1.237541675567627, 0.11158621311187744, -0.6748194694519043, 0.27774134278297424, -0.7972825169563293, -2.9039900302886963, 0.0951034352183342, -0.36885327100753784, -0.6172197461128235], [-0.19392982125282288, 0.2795257866382599, -0.10082047432661057, -0.21659770607948303, -0.04662168398499489, -0.4150843024253845, -0.5813745260238647, 0.7952409982681274, -0.734839677810669, 0.22883225977420807, -0.4151499569416046, -0.36221614480018616, 0.0004176728252787143, 0.08142612874507904, 0.4853103458881378, -0.34738555550575256], [0.009607337415218353, 0.43122926354408264, -0.1766011118888855, 0.03736574947834015, 0.14011962711811066, 0.5884841680526733, 0.19760970771312714, 0.19497762620449066, 0.42052388191223145, 0.7152842283248901, 0.03118215687572956, 0.3283781409263611, 0.40254995226860046, -0.3127078711986542, 0.3436155617237091, 0.33649128675460815], [0.6948055028915405, -0.8463776111602783, -0.14114266633987427, 0.3344797194004059, 0.4773968458175659, -0.05120288208127022, 0.28541404008865356, 0.008419152349233627, -0.0653059184551239, -0.29774343967437744, 0.13685289025306702, 0.4844241142272949, 0.5447816848754883, -0.013007859699428082, -0.6306131482124329, -0.14410242438316345], [-0.2514159381389618, -0.11553755402565002, 0.31017160415649414, 0.09011604636907578, 0.49522504210472107, -0.04884941875934601, 0.032858457416296005, 0.28015440702438354, 0.4929414987564087, -0.6314623951911926, -0.058980416506528854, 0.31511855125427246, -0.011816930957138538, 0.0018657604232430458, -0.09449639171361923, 0.08073782920837402], [0.02159293368458748, -0.5561509132385254, -0.9017658233642578, 0.27638256549835205, 0.3440726697444916, 0.2272559255361557, 0.24637651443481445, 0.1309097558259964, -0.15494167804718018, -0.5613572597503662, -0.6828110218048096, 0.3459204435348511, -0.03750137984752655, -0.2601475119590759, -0.8623508810997009, 0.10792259871959686], [-0.9102206230163574, -0.17963220179080963, 0.2636979818344116, 0.3187502920627594, 0.2705492675304413, 0.14262183010578156, 0.13116557896137238, -0.26686233282089233, 0.36473244428634644, 0.4080738425254822, 0.16414017975330353, 0.3584238588809967, 0.43918466567993164, 0.6840367317199707, 0.07664059847593307, 0.24436452984809875], [0.34972110390663147, -0.023236338049173355, 0.3910606801509857, -0.09261973947286606, -0.25673139095306396, -0.0685344710946083, -0.3535366356372833, 0.39878928661346436, 0.3497012257575989, -0.4390268623828888, -0.0811551883816719, 0.1219266727566719, 0.4017762541770935, -0.35521233081817627, -0.16723817586898804, -0.17898531258106232], [0.10961305350065231, -0.5957831144332886, -0.5682372450828552, 0.6921471357345581, 0.04318191856145859, -0.3415713906288147, 0.4862719178199768, 0.2945583164691925, 0.08791369944810867, -0.49413594603538513, 0.11348409205675125, 0.11001155525445938, -0.18969325721263885, 0.26551973819732666, -0.7848358750343323, -0.07457110285758972], [0.7823809385299683, 0.3908030688762665, -0.09141984581947327, -1.7009124755859375, -0.1393107920885086, -0.4192263185977936, 0.143857941031456, 0.45323193073272705, 0.2269417941570282, 0.43889978528022766, 0.007791589945554733, -0.09196113795042038, -1.322227954864502, 0.594539999961853, 0.4427725374698639, 0.6914410591125488], [0.13406728208065033, -0.07172732800245285, 0.46524497866630554, -0.0633992850780487, 0.2205299586057663, 0.49876439571380615, 0.10930945724248886, 0.15126168727874756, 0.3671255111694336, -1.077353835105896, -0.022623740136623383, 0.346860408782959, 0.2719113528728485, 0.1803852915763855, 0.06514446437358856, -0.5524736642837524], [0.5946474075317383, -0.2299286127090454, 0.007219633087515831, -0.2624727785587311, -0.11268897354602814, -0.250003457069397, -0.05109556019306183, -1.216701626777649, -0.6194164752960205, -0.1498955935239792, 0.1267027109861374, -0.6388567090034485, -0.8700906038284302, -0.28901559114456177, -1.022215723991394, 0.08062907308340073], [-0.9676070809364319, 0.026934636756777763, -0.3850388526916504, -1.797929048538208, -0.659328043460846, -0.4439762234687805, 0.0047368756495416164, 0.4424465000629425, -0.9167097806930542, -0.19034652411937714, -0.24061745405197144, -0.3472471833229065, -0.09434892237186432, -0.5994938015937805, 0.6919141411781311, 0.6367253065109253], [0.21295705437660217, 0.16231690347194672, -0.6320258975028992, -0.6423768997192383, 0.5559113025665283, 0.2307446002960205, 0.17242291569709778, 0.5175976157188416, 0.0119609534740448, 0.030846603214740753, -0.7155117392539978, 0.3137471079826355, -0.07487174868583679, -0.4517988860607147, 0.13719014823436737, 0.47462600469589233], [0.25721290707588196, 0.033891983330249786, -0.19586604833602905, 0.4103114902973175, 0.24671921133995056, 0.21369928121566772, 0.24109837412834167, -0.044450629502534866, -0.20737650990486145, -1.0593633651733398, 0.2116180658340454, 0.40943366289138794, 0.6379110217094421, 0.6074901819229126, 0.18296796083450317, 0.3783327639102936], [-0.3016003966331482, 0.4001707136631012, -0.0762045606970787, 0.028020769357681274, 0.8603814840316772, 0.3013177216053009, 0.35584473609924316, -0.49366599321365356, 0.5810856223106384, 0.2038220912218094, -0.04692058265209198, 0.6823416948318481, 0.2864338755607605, 0.11185576766729355, -0.09697520732879639, 0.1879042088985443]], "2_weights": [[1.361241340637207, 1.0755524635314941, 0.9113464951515198], [-0.3901948928833008, -0.5814350843429565, -0.8185948729515076], [1.1605340242385864, 0.6681922078132629, -1.1439416408538818], [-0.8451493978500366, -1.3939135074615479, -1.853595495223999], [-0.4209143817424774, -0.7252973914146423, -0.7137442827224731], [-0.6814553141593933, -0.4748876094818115, -0.13850797712802887], [-0.7949443459510803, -0.07663185149431229, -0.1677210032939911], [-0.9468010067939758, -0.9376410245895386, -0.939154863357544], [0.20644021034240723, -0.22800596058368683, -0.7506747245788574], [1.590048909187317, 0.09970395267009735, -3.9874935150146484], [1.0103299617767334, 0.7516958117485046, 0.5301936864852905], [-0.42806440591812134, -0.5357328653335571, -0.42774447798728943], [0.749941349029541, 0.7803744077682495, 0.5310758948326111], [-0.8712127208709717, -0.08219733089208603, 0.6398301124572754], [-3.1001534461975098, -1.9225314855575562, -0.1871405988931656], [-0.21144776046276093, 0.18853378295898438, 0.5563376545906067]], "0_bias": [-0.08060865104198456, -0.11455531418323517, -0.0011159555288031697, -0.05477980151772499, 0.13925214111804962, 0.03033093549311161, -0.012838750146329403, -0.04223578795790672, -0.16624751687049866, 0.051099278032779694, 0.04654030129313469, 0.04430666193366051, -0.10088258981704712, 0.1082015186548233, -0.05842529609799385, 0.051742084324359894], "1_bias": [-0.018077274784445763, 0.23438452184200287, 0.32853883504867554, 0.27735984325408936, -0.06525702774524689, 0.01282444316893816, 0.06087758019566536, 0.4491167664527893, -0.2716761827468872, -0.32628580927848816, 0.4576267898082733, -0.09085641801357269, -0.03165358677506447, 0.0031853418331593275, -0.12989844381809235, 0.08589523285627365], "2_bias": [0.17218880355358124, 0.25213515758514404, 0.16739439964294434], "format": "png"}