{"voxel_size": 0.0024817874999999994, "block_size": 30, "grid_width": 563, "grid_height": 585, "grid_depth": 1000, "atlas_width": 2048, "atlas_height": 2048, "atlas_depth": 32, "num_slices": 8, "min_x": -0.6984875000000001, "min_y": -0.4141625000000002, "min_z": -1.23239375, "atlas_blocks_x": 64, "atlas_blocks_y": 64, "atlas_blocks_z": 1, "input_height": 800.0, "input_width": 800.0, "input_focal": 1111.1110311937682, "worldspace_T_opengl": [[-1.0, 0.0, 0.0, 0.0], [0.0, 0.0, 1.0, 0.0], [0.0, 1.0, 0.0, 0.0], [0.0, 0.0, 0.0, 1.0]], "ndc": false, "0_weights": [[0.1985173374414444, 0.0011965599842369556, -0.5391189455986023, 0.1348111927509308, -0.6292675733566284, 0.09273112565279007, -0.7866037487983704, -0.1525576412677765, 0.5866763591766357, 0.3511510491371155, 0.16279689967632294, -0.22646890580654144, 0.059432294219732285, -0.2083553671836853, 0.22881726920604706, -0.3422364592552185], [-0.19595763087272644, 0.3344937860965729, 0.1138669028878212, 0.11711626499891281, 0.03698040917515755, -0.39095935225486755, -0.1790541410446167, -0.1376693993806839, 0.17320524156093597, -0.28737443685531616, -0.058900732547044754, 0.23585303127765656, 0.15287141501903534, 0.04733068868517876, -0.22889700531959534, 0.3878290057182312], [0.27325060963630676, -0.06838437169790268, -0.11710266023874283, 0.2497876137495041, -0.056448426097631454, 0.25313177704811096, 0.4433942437171936, 0.17342181503772736, -0.09453923255205154, 0.3541674315929413, -0.009324385784566402, 0.11736146360635757, -0.17401252686977386, -0.3236636221408844, 0.19156868755817413, -0.2058524638414383], [0.18766792118549347, -0.2279316484928131, -0.2973085343837738, 0.2058134526014328, -0.6144331097602844, 0.3298569619655609, -0.26171883940696716, 0.025276413187384605, 0.8670210838317871, 0.2739693224430084, -0.19563274085521698, -0.32332369685173035, -0.11645474284887314, -0.11969685554504395, -0.18738053739070892, -0.17990919947624207], [-0.09757452458143234, -0.15290874242782593, 0.3879886865615845, 0.37239763140678406, 0.41620883345603943, -0.3395269215106964, 0.14881053566932678, -0.07990113645792007, -0.18919062614440918, 0.13554054498672485, 0.12424488365650177, 0.1285925954580307, -0.12352970987558365, -0.2434365600347519, -0.04976456239819527, -0.17673145234584808], [0.022951677441596985, -0.04023415967822075, -0.06923704594373703, -0.39810121059417725, -0.2081678807735443, 0.01126163825392723, -0.20144717395305634, 0.11865215003490448, 0.34037303924560547, -0.2425994575023651, -0.2649272680282593, -0.003684380790218711, 0.3351427912712097, 0.019201025366783142, -0.10081985592842102, -0.16229942440986633], [-0.1868339478969574, 0.06278114020824432, 0.0187296811491251, 0.3359014391899109, -0.04998508468270302, 0.12115293741226196, -0.63764888048172, 0.004930404014885426, 0.4243966042995453, -0.2142990678548813, 0.10108340531587601, -0.35865989327430725, 0.1780344843864441, 0.03766249492764473, 0.006664666812866926, -0.005282184574753046], [0.1737462431192398, 0.25812652707099915, 0.3782241642475128, -0.26511579751968384, 0.1644628643989563, 0.3673427999019623, -0.295219749212265, -0.30420807003974915, -0.2202814817428589, -0.127711683511734, 0.0162949301302433, 0.3973633348941803, 0.25469714403152466, 0.2645776867866516, -0.4331045150756836, 0.04551627114415169], [-0.3742912709712982, 0.09612415730953217, 0.069669209420681, 0.20283463597297668, 0.023874172940850258, 0.05111025273799896, -0.09743200987577438, 0.35517269372940063, -0.16814786195755005, 0.0713905543088913, -0.1784578263759613, 0.10780472308397293, 0.09930458664894104, 0.2279333919286728, 0.031204508617520332, -0.02514832653105259], [-0.06817039847373962, -0.5261536836624146, -0.12717688083648682, -0.026247983798384666, 0.4428890645503998, -0.13041777908802032, -0.04825287684798241, 0.1644202470779419, 0.11318737268447876, 0.023591598495841026, -0.5681155920028687, -0.2610245645046234, 0.5534105896949768, 0.40380048751831055, 0.34297770261764526, -0.39643099904060364], [-0.06507473438978195, -0.2681797444820404, -0.42429110407829285, 0.018082866445183754, -0.09975751489400864, -0.015839118510484695, 0.13707394897937775, -0.3869529664516449, 0.03231172636151314, 0.09419403970241547, -0.23330579698085785, -0.09832360595464706, 0.08916863054037094, 0.001307593542151153, -0.03695297986268997, -0.20810705423355103], [0.1235540509223938, -0.026982037350535393, -0.15862631797790527, -0.005223358049988747, -0.2779594659805298, -0.04329024255275726, -0.606084406375885, 0.5176135301589966, -0.4294455349445343, 0.04538968205451965, 0.21860593557357788, 0.4363451302051544, -0.0004854380968026817, -0.006699130404740572, -0.11051235347986221, 0.17345039546489716], [0.058523595333099365, 0.09626394510269165, 0.0680161640048027, 0.04801611229777336, -0.04543536528944969, 0.05772919952869415, -0.011076224036514759, 0.6414010524749756, -0.34374770522117615, 0.04065287485718727, 0.11145401746034622, 0.18660788238048553, 0.41636890172958374, -0.1266510784626007, 0.6978328824043274, 0.0270744189620018], [0.02318030595779419, 0.10759322345256805, 0.09019546210765839, 0.01268691010773182, -0.2887853980064392, -0.013251271098852158, -0.006307209841907024, -0.015530306845903397, -0.5576364398002625, -0.03157711774110794, 0.1587572693824768, -0.033234186470508575, 0.0018818662501871586, 0.17416416108608246, 0.20987235009670258, 0.011008447036147118], [-0.12382328510284424, -0.24302731454372406, -0.10540511459112167, -0.043081436306238174, 0.19896601140499115, 0.015359100885689259, 0.13798673450946808, -0.08454985916614532, 0.03778016194701195, -0.044199973344802856, -0.11090078204870224, 0.08171180635690689, 0.1382323056459427, 0.169002503156662, 0.042337313294410706, -0.2953970432281494], [0.2965610921382904, 0.1029873639345169, 0.4220615029335022, -0.14810878038406372, -0.2725179195404053, 0.4159541428089142, 0.1137874498963356, -0.4233720600605011, -0.18098285794258118, -0.12356586009263992, 0.3411765992641449, -0.11637628823518753, -0.290863573551178, 0.4015018939971924, -0.5117678046226501, -0.3423096537590027], [-0.29309555888175964, -0.18533746898174286, 0.4588574767112732, 0.0850592851638794, -0.04061996191740036, 0.15703609585762024, 0.1444542557001114, -0.48168811202049255, -0.20604553818702698, -0.30894994735717773, 0.3060274124145508, 0.20820702612400055, -0.2355460673570633, 0.38588061928749084, -0.13883309066295624, -0.17926184833049774], [-0.18776507675647736, -0.30631887912750244, -0.12744395434856415, 0.48340070247650146, -0.22419089078903198, 0.38997361063957214, -0.0372953787446022, -0.4921998977661133, -0.14727424085140228, 0.24906820058822632, 0.5152721405029297, -0.13363227248191833, 0.23116035759449005, -0.0181045550853014, -0.19874675571918488, -0.4500555098056793], [0.19633065164089203, -0.08447504788637161, -0.13817384839057922, 0.044035546481609344, 0.15996840596199036, 0.13022635877132416, -0.3843074142932892, -0.29379817843437195, -0.4535250961780548, 0.2935567796230316, -0.14695198833942413, 0.18519863486289978, -0.21798637509346008, -0.1580170840024948, -0.19035233557224274, 0.0852339118719101], [-0.3707277476787567, 0.39910027384757996, 0.4808986485004425, 0.184854656457901, 0.2850049138069153, 0.09656257182359695, -0.323211133480072, -0.09107138961553574, -0.14425453543663025, 0.013455838896334171, 0.24607640504837036, -0.17377325892448425, 0.5529934763908386, -0.2739377021789551, -0.6185513734817505, 0.2480478286743164], [-0.1069861352443695, 0.3858783543109894, 0.05239395052194595, 0.130632683634758, -0.026523122563958168, 0.03016936406493187, 0.14955954253673553, -0.3757510483264923, 0.317071795463562, 0.12664958834648132, 0.37040621042251587, -0.42159345746040344, -0.00899357907474041, 0.23676514625549316, 0.1783934235572815, -0.020325006917119026], [0.03694886341691017, -0.1569618135690689, 0.1579221487045288, 0.011672671884298325, 0.1441194862127304, 0.034903183579444885, 0.11087386310100555, 0.11583039909601212, 0.3117077648639679, 0.05316891521215439, 0.011535651981830597, 0.6044597625732422, 0.14541774988174438, -0.018902407959103584, 0.3051621615886688, -0.03238360583782196], [0.028107834979891777, 0.06079412251710892, 0.03436076641082764, 0.0582340806722641, 0.1323697865009308, 0.0017597617115825415, -0.04177093133330345, -0.12435846030712128, -0.23700599372386932, 0.012043432332575321, 0.15998418629169464, -0.23254874348640442, -0.12516051530838013, 0.06381982564926147, -0.0048126657493412495, 0.07916322350502014], [0.029349414631724358, -0.1263689398765564, -0.061503682285547256, -0.18532057106494904, 0.07025308161973953, 0.027579855173826218, 0.148493692278862, 0.5154492259025574, 0.31542742252349854, -0.10595684498548508, 0.12085054069757462, -0.6397161483764648, 0.10343404859304428, 0.2057865411043167, -0.2624143660068512, -0.3243115544319153], [0.03147609904408455, 0.13804729282855988, -0.10732146352529526, -0.01540390495210886, 0.040104206651449203, -0.027988040819764137, 0.09289100021123886, -0.5516639947891235, -0.0416761077940464, -0.05078520253300667, 0.046730075031518936, 0.4172975718975067, -0.12115855515003204, -0.15727707743644714, -0.3576318323612213, 0.039064984768629074], [0.04315193369984627, -0.11279953271150589, -0.22564037144184113, -0.01895737834274769, 0.14496205747127533, -0.005977966357022524, 0.048710014671087265, -0.3687976896762848, 0.193333238363266, -0.011394900269806385, -0.20488034188747406, 0.477881520986557, -0.015664726495742798, -0.09423882514238358, 0.30281588435173035, -0.12288935482501984], [0.11261296272277832, 0.021424373611807823, -0.030027830973267555, 0.008626647293567657, -0.20656034350395203, 0.014605390839278698, -0.15676793456077576, 0.06781991571187973, -0.39262738823890686, -0.022857889533042908, 0.1321781575679779, 0.3567688465118408, -0.1969844102859497, 0.16599524021148682, 0.0511319637298584, 0.03808516263961792], [-1.8557161092758179, 0.4366799294948578, 0.9884247779846191, 0.4770602583885193, -0.13909466564655304, -0.027008218690752983, -0.22087953984737396, -0.7591665387153625, -0.3601844906806946, 0.9988740682601929, -0.13216891884803772, 0.17183896899223328, -0.07271264493465424, 0.7986086010932922, -0.14530140161514282, 0.5554844737052917], [0.18087273836135864, 0.37358522415161133, 0.501383900642395, -0.2252257764339447, -0.09817847609519958, -0.6906668543815613, 0.019129032269120216, 0.17284223437309265, -0.4007897973060608, 0.9635282158851624, -0.06993887573480606, 0.6620340943336487, 0.6988588571548462, 0.06345264613628387, -0.7903469204902649, 0.1696971356868744], [0.4478569030761719, 0.1028144434094429, -0.6565078496932983, -0.2589372396469116, 0.5477598905563354, -0.4979814887046814, -0.32885777950286865, 0.264068067073822, 0.8077690005302429, 0.5365201234817505, 1.556034803390503, -0.047373946756124496, 1.1683133840560913, 0.6345377564430237, 0.289889395236969, 0.43397197127342224], [-1.213057041168213, 0.8348284363746643, -0.010362008586525917, -0.1958158314228058, 0.32346227765083313, 0.29789552092552185, -0.1829126477241516, 0.45869335532188416, 0.5035375356674194, -1.0292428731918335, -1.4073554277420044, -0.4936116933822632, -0.535374104976654, -0.9321566224098206, 0.8208761811256409, -1.1653846502304077], [0.35592228174209595, 0.6776634454727173, -1.3710111379623413, -0.4238763749599457, 1.2155479192733765, 0.6561431884765625, 1.4489203691482544, 0.9821056723594666, 0.253134548664093, 0.7498568296432495, -0.65640789270401, 0.7060962915420532, -3.72849178314209, 0.5848574638366699, -0.1026497334241867, 0.7852367162704468], [1.38405179977417, -0.19235700368881226, -0.32610344886779785, -0.5311270356178284, -0.002563861897215247, 0.6988170146942139, 0.042472340166568756, -0.250938355922699, 0.044059984385967255, -1.2311228513717651, 0.13356274366378784, -0.6276330351829529, 0.5077428817749023, 0.41838639974594116, -0.14540879428386688, 1.2770254611968994], [-0.23572833836078644, 1.1506818532943726, -0.8955485820770264, -7.45001220703125, 0.6227226853370667, -2.2575244903564453, 0.9793396592140198, 0.8519317507743835, 0.4234163463115692, 0.3637426793575287, -0.7730883955955505, -1.2171462774276733, -1.9624719619750977, -0.06633928418159485, -0.0070887538604438305, 0.12873272597789764]], "1_weights": [[-1.0814763307571411, -1.6430187225341797, -0.0470941960811615, -0.4733336269855499, -0.21810804307460785, -0.15239842236042023, -0.23052720725536346, -1.3697433471679688, -1.5618399381637573, -2.3585667610168457, -0.6391478776931763, -0.0032071101013571024, -0.7741072177886963, 0.15972508490085602, 0.01605440303683281, -1.5999094247817993], [-0.10180582106113434, -0.026411883533000946, 0.6265190839767456, 0.28949156403541565, -0.05719294771552086, -0.3195568025112152, -0.22713522613048553, 0.5027724504470825, 0.05681731924414635, 0.051970064640045166, -0.08475267887115479, -0.2594050467014313, 0.10873734951019287, 0.16018199920654297, 0.7480711340904236, 0.48390960693359375], [-0.12382563203573227, -0.01936723105609417, 0.40723854303359985, -1.386613368988037, -0.02280469238758087, -0.11297006905078888, 0.03453522175550461, 0.1254434883594513, 0.1972263902425766, 0.9196535348892212, -0.27847808599472046, -0.1256132870912552, 0.08876194059848785, 0.1186114177107811, -1.3171042203903198, -0.08479385077953339], [0.20006607472896576, -0.5474492907524109, -0.7391412854194641, -0.5448892712593079, 1.3557240962982178, 1.0959336757659912, 1.1363736391067505, 1.3758636713027954, 2.100740432739258, -0.7904767990112305, 0.7672122120857239, 1.618144154548645, 1.2285633087158203, -0.26037123799324036, -0.46846094727516174, -1.3065624237060547], [0.011199685744941235, 0.023557405918836594, -0.036236658692359924, -0.9704629182815552, 0.33881330490112305, -0.09148634970188141, 0.03928564861416817, 0.1102181002497673, -0.03978286683559418, -0.09030725061893463, -0.14584580063819885, 0.179733008146286, 0.2536396086215973, -0.10135341435670853, -1.480368733406067, 0.1259007453918457], [0.28313279151916504, 0.11100000143051147, 0.17291481792926788, 0.5122911930084229, 0.5494144558906555, 0.310608834028244, 0.21504849195480347, 0.37827619910240173, 0.04807676374912262, -0.263016939163208, 0.3861960172653198, 0.5599873065948486, -0.1915384978055954, -0.2947143316268921, 0.16460144519805908, 0.24038474261760712], [-0.7580077648162842, -0.016166090965270996, 0.3602396249771118, -1.0217012166976929, 0.2579290270805359, 0.1692451685667038, 0.05775075405836105, -0.43508777022361755, 0.4500492513179779, -0.06063205748796463, -0.3332728147506714, 0.27233046293258667, -0.3999929428100586, -0.04948894679546356, -0.6483867168426514, -0.29734566807746887], [1.0080851316452026, -1.104112148284912, -0.47067931294441223, 1.5404815673828125, -1.3693712949752808, -0.43608909845352173, -0.45708054304122925, -0.7906762361526489, -3.729478597640991, -2.048992156982422, -0.347391813993454, -0.9837627410888672, 1.6399707794189453, -0.9864176511764526, 0.3726828396320343, -2.494257688522339], [-0.5837411284446716, -0.03989838808774948, 0.10644546896219254, -0.02442367747426033, -0.3142707943916321, -0.26979947090148926, -0.22144320607185364, 0.6526359915733337, -0.2581859529018402, 0.38657090067863464, -0.05260269343852997, -0.17253948748111725, -0.678030788898468, -0.2263609766960144, -1.264350414276123, 0.2051539570093155], [0.03551483899354935, 0.22317826747894287, -0.5172351598739624, -0.8064905405044556, 0.5782693028450012, 0.8590975999832153, 0.6673692464828491, 0.4828633666038513, 0.4264308512210846, 0.06708637624979019, 1.1084259748458862, 0.5496869087219238, -0.251819908618927, -0.03139594569802284, 0.4989602863788605, 0.4952505826950073], [-0.512585461139679, 0.06671305000782013, -0.0490993857383728, -0.09361008554697037, -0.019485438242554665, 0.5153846740722656, 0.11456208676099777, -0.48958784341812134, -0.005105295684188604, -0.5689416527748108, -0.051775068044662476, 0.18981529772281647, 0.6936696767807007, 0.03076576068997383, -0.25399941205978394, -0.5766578316688538], [-0.6252777576446533, -0.002131679328158498, -0.0813927873969078, -0.43980085849761963, 0.2333955019712448, 0.5376451015472412, 0.10493852198123932, -0.05532262474298477, 0.16278095543384552, 0.42084720730781555, -0.08509751409292221, -0.24930384755134583, -0.0825982540845871, -0.09988654404878616, -0.9357775449752808, 0.033976636826992035], [-0.2475883513689041, 0.49834245443344116, -0.4023488759994507, -0.2086653858423233, -1.4226481914520264, -0.8857580423355103, -0.7683262228965759, 0.18088842928409576, -1.3084079027175903, -0.4754875600337982, 0.29639971256256104, -1.3215100765228271, -0.3967490792274475, 0.46576642990112305, -0.4368797540664673, 0.8859975337982178], [0.1630202680826187, 0.31279873847961426, -0.3373115658760071, -0.3904344141483307, 0.564513087272644, 0.3229773938655853, 0.33084362745285034, 0.049957193434238434, 0.1853683739900589, 0.1709202378988266, -0.24497409164905548, 0.11247377097606659, -0.005345915909856558, -0.1360495537519455, -0.4002592861652374, 0.39313334226608276], [0.6477669477462769, -0.20865598320960999, -0.1354271024465561, 0.33701419830322266, 0.07606709003448486, -0.40254515409469604, -0.0875377357006073, -0.3015616238117218, -0.5260772705078125, 0.22484785318374634, -0.19852417707443237, 0.23356963694095612, 0.2461746484041214, 0.4806087017059326, 0.5530810952186584, 0.10172367095947266], [-1.046444296836853, 0.2971903681755066, -0.8178677558898926, 0.16827742755413055, 0.6152432560920715, 0.06254246830940247, 0.2745804190635681, -0.3648149371147156, 0.17232070863246918, -0.1747329980134964, 0.22075366973876953, 0.3040764629840851, -0.3681340515613556, 0.8472265601158142, 0.14025551080703735, 0.07899239659309387]], "2_weights": [[0.5814201831817627, 0.7539920210838318, 0.7208200097084045], [0.03975312039256096, -0.3922305107116699, -0.7481588125228882], [-0.8417536020278931, -0.7556139230728149, -0.6999629735946655], [0.9852073788642883, 1.0540493726730347, 0.8282128572463989], [-0.8251974582672119, -0.7905125021934509, -0.5163187980651855], [-0.7044220566749573, -0.6769168972969055, -0.5161258578300476], [-0.5286195278167725, -0.30117160081863403, -0.5492722392082214], [-0.78667813539505, -0.8641936182975769, -0.9028679728507996], [0.42453688383102417, 0.33198079466819763, 0.18604311347007751], [0.8587517738342285, 0.7455440759658813, 0.36477190256118774], [0.9827712178230286, 1.1509710550308228, 2.061689615249634], [-0.3658549189567566, -0.4209865629673004, -0.47269731760025024], [0.5483247637748718, 0.5888383388519287, 0.743256151676178], [-0.5525320768356323, -0.4107322096824646, -0.36995455622673035], [1.1299428939819336, 1.0208765268325806, 1.3512746095657349], [-0.925077497959137, -0.5617919564247131, -0.11500788480043411]], "0_bias": [0.009070245549082756, -0.05645584315061569, 0.13173429667949677, 0.17932212352752686, -0.017331674695014954, 0.1407240927219391, -0.08859953284263611, -0.2907501459121704, 0.015714449808001518, -0.03646602854132652, 0.19415950775146484, -0.06596926599740982, -0.052138328552246094, 0.11358655244112015, -0.19184458255767822, -0.11792246997356415], "1_bias": [-0.12285196781158447, 0.05946417897939682, 0.35205474495887756, 0.21953292191028595, 0.12628357112407684, 0.16520819067955017, 0.18004463613033295, -0.13239982724189758, 0.24352742731571198, -0.028540613129734993, -0.8671396970748901, 0.0790393278002739, -0.10934222489595413, -0.13829576969146729, 0.2663896381855011, -0.2792084217071533], "2_bias": [1.135880947113037, 1.046525478363037, 0.8040797114372253], "format": "png"}
