{"voxel_size": 0.0033827875, "block_size": 30, "grid_width": 974, "grid_height": 756, "grid_depth": 1000, "atlas_width": 2048, "atlas_height": 2048, "atlas_depth": 4, "num_slices": 1, "min_x": -1.7, "min_y": -0.8556312500000001, "min_z": -1.6827875, "atlas_blocks_x": 64, "atlas_blocks_y": 64, "atlas_blocks_z": 1, "input_height": 800.0, "input_width": 800.0, "input_focal": 1111.1110311937682, "worldspace_T_opengl": [[-1.0, 0.0, 0.0, 0.0], [0.0, 0.0, 1.0, 0.0], [0.0, 1.0, 0.0, 0.0], [0.0, 0.0, 0.0, 1.0]], "ndc": false, "0_weights": [[0.31300753355026245, 0.059649404138326645, -0.5101727247238159, 0.16875341534614563, -0.33187246322631836, -0.29159387946128845, -0.558235228061676, 0.06489039212465286, 0.19566141068935394, 0.12659968435764313, 0.27724167704582214, -0.4936745762825012, 0.14488020539283752, -0.06501786410808563, 0.5137628316879272, -0.20683503150939941], [-0.12752994894981384, 0.0011558042606338859, -0.14856036007404327, -0.15183912217617035, 0.3752358853816986, -0.11024338752031326, -0.11736548691987991, 0.08712994307279587, -0.026261551305651665, -0.48436471819877625, -0.14604990184307098, 0.0021025147289037704, 0.10506099462509155, 0.3529573976993561, 0.11472446471452713, 0.2820833623409271], [0.41580522060394287, 0.09177955985069275, -0.020759431645274162, 0.44030165672302246, 0.1116219311952591, 0.15478262305259705, 0.09338533133268356, -0.053957730531692505, -0.11848080158233643, 0.23505838215351105, 0.26194024085998535, 0.09665850549936295, -0.3260505795478821, -0.4190935492515564, -0.013343971222639084, -0.18756814301013947], [0.2536560297012329, -0.1928406059741974, -0.3204611539840698, 0.23290663957595825, -0.4093030095100403, -0.0036998025607317686, -0.04895203933119774, 0.2135430872440338, 0.496579647064209, 0.10707584768533707, -0.11885610222816467, -0.5479263663291931, -0.0998842865228653, -0.0020671533420681953, 0.05934203043580055, -0.0035669729113578796], [-0.06360092759132385, -0.4970381557941437, 0.15973171591758728, 0.1600528508424759, 0.7548312544822693, -0.1286422610282898, 0.22767888009548187, 0.1436959207057953, -0.4050290286540985, -0.06747269630432129, 0.030166925862431526, -0.09925150126218796, -0.17063498497009277, 0.02561337873339653, 0.308030366897583, -0.2606949806213379], [0.18012426793575287, 0.1135842502117157, 0.0341830849647522, -0.21102482080459595, -0.035421743988990784, -0.07826043665409088, -0.5078034996986389, -0.11858957260847092, 0.3208305835723877, -0.3559432327747345, -0.0079871891066432, -0.02702600322663784, 0.21337488293647766, -0.06555487215518951, -0.2853713035583496, -0.1299230009317398], [-0.2449490875005722, 0.040527842938899994, -0.1241152286529541, 0.3091840445995331, -0.10499188303947449, -0.05617833510041237, -0.4671228528022766, 0.11028890311717987, 0.1250060498714447, -0.20562610030174255, 0.09626396745443344, -0.4442654252052307, -0.00954199954867363, 0.08881913125514984, 0.11446049064397812, 0.30645784735679626], [0.1011132076382637, -0.09031260013580322, 0.2542170286178589, -0.30188825726509094, 0.49519750475883484, 0.3781144618988037, -0.17715409398078918, -0.07149984687566757, -0.4653521776199341, -0.3370008170604706, -0.10924293845891953, 0.19502028822898865, 0.20588380098342896, 0.414572536945343, -0.048457205295562744, 0.013066169805824757], [-0.1954178363084793, 0.23730450868606567, 0.18501336872577667, 0.37108829617500305, 0.22225046157836914, -0.014214564114809036, -0.2681178152561188, 0.07848850637674332, -0.16499631106853485, -0.016903268173336983, 0.01938951574265957, 0.06951980292797089, 0.0655287504196167, 0.17184123396873474, -0.08181678503751755, 0.04941470921039581], [-0.2773653566837311, 0.03786550462245941, 0.32393166422843933, 0.013827083632349968, 0.205593541264534, 0.13570182025432587, -0.12909306585788727, 0.015917517244815826, -0.015258868224918842, 0.06382571905851364, -0.01832995004951954, 0.2180536687374115, -0.04223470017313957, -0.032911498099565506, 0.03225851058959961, 0.03807533159852028], [-0.2840787172317505, 0.009944122284650803, -0.21652868390083313, 0.31574177742004395, -0.2649237811565399, -0.06598184257745743, -0.008732382208108902, -0.06044146046042442, 0.40112775564193726, 0.15045049786567688, -0.043177634477615356, -0.08942130208015442, -0.18217137455940247, -0.07374992966651917, 0.03046063333749771, -0.03991992399096489], [0.08224130421876907, 0.014841961674392223, 0.1282377988100052, -0.06209320202469826, 0.0910620391368866, -0.14949096739292145, 0.10820889472961426, 0.28233152627944946, -0.2001722753047943, 0.0707964301109314, 0.26458853483200073, -0.024488234892487526, 0.19502143561840057, 0.05435426905751228, 0.23567232489585876, 0.27437201142311096], [-0.2149665504693985, -0.017681341618299484, 0.05591977387666702, 0.04264884814620018, -0.0651119127869606, -0.01395310740917921, 0.01492929644882679, 0.036702051758766174, 0.009046904742717743, -0.02235007844865322, -0.027853770181536674, -0.015360426157712936, 0.07674450427293777, 0.02885906957089901, -0.0312708280980587, 0.018251480534672737], [-0.12180077284574509, 0.013648897409439087, 0.048941560089588165, -0.05574651435017586, -0.005629017483443022, 0.057232074439525604, -3.196608304278925e-05, -0.17508265376091003, -0.03868693858385086, 0.011007099412381649, -0.028774119913578033, 0.016341937705874443, 2.6810979761648923e-05, -0.026569746434688568, 0.008200399577617645, -0.0422573946416378], [-0.24708621203899384, -0.06111343204975128, -0.1143728718161583, -0.09578526020050049, -0.052372466772794724, -0.009944535791873932, -0.08633019030094147, 0.25658273696899414, 0.1673290878534317, -0.06801487505435944, -0.019042901694774628, -0.05247173085808754, -0.08255922794342041, 0.0838012620806694, -0.029189571738243103, 0.04684215784072876], [0.1321893185377121, 0.05606164038181305, 0.4263201057910919, -0.5553698539733887, -0.19494497776031494, 0.5231688022613525, 0.48766350746154785, -0.21230252087116241, -0.17970512807369232, 0.10467860847711563, 0.1339000016450882, -0.15147316455841064, -0.23723091185092926, 0.3329049348831177, -0.30749183893203735, -0.13184422254562378], [-0.3812864124774933, -0.40722325444221497, 0.40981483459472656, -0.1529124230146408, -0.1179291307926178, 0.3016658127307892, 0.42087322473526, -0.26018226146698, -0.14787735044956207, -0.036689866334199905, 0.13451255857944489, 0.27258530259132385, -0.44275668263435364, 0.3942405581474304, 0.10310511291027069, -0.01392368320375681], [-0.3274884819984436, -0.4049152731895447, -0.14152425527572632, 0.1694343090057373, -0.18919065594673157, 0.5086609721183777, 0.18050777912139893, -0.21725070476531982, -0.19076064229011536, 0.5214006900787354, 0.3891519010066986, -0.06708048284053802, 0.0841633751988411, -0.09824053943157196, 0.020229561254382133, -0.21876519918441772], [-0.0053600468672811985, 0.12173543870449066, -0.1307661235332489, -0.7605566382408142, 0.33078375458717346, 0.11013276129961014, 0.20301806926727295, -0.13347098231315613, -0.6862272024154663, 0.35441431403160095, -0.4423083961009979, -0.06483524292707443, 0.20060694217681885, -0.3585284352302551, -0.09230772405862808, 0.30507469177246094], [-0.14275379478931427, -0.11147962510585785, 0.2959494888782501, 0.08071963489055634, -0.08156328648328781, 0.29106274247169495, -0.11226094514131546, 0.11511076241731644, 0.15270349383354187, 0.3042137324810028, 0.0868435949087143, -0.008521412499248981, -0.24969510734081268, -0.13446669280529022, -0.2936337888240814, 0.27026525139808655], [-0.2586035132408142, 0.3128716051578522, 0.043664321303367615, -0.09919775277376175, 0.08691968768835068, 0.11556533724069595, 0.056037191301584244, -0.251274436712265, 0.02026336081326008, 0.5106452107429504, 0.4159170091152191, 0.2334882766008377, -0.2991780638694763, -0.08062297105789185, 0.43899887800216675, 0.31349581480026245], [0.10728438198566437, -0.07377627491950989, -0.3059581220149994, -0.012939336709678173, -0.34679147601127625, -0.017705852165818214, -0.22135303914546967, 0.21486763656139374, -0.040266986936330795, -0.09252990782260895, 0.08722048997879028, -0.02207048237323761, -0.200739786028862, -0.14463798701763153, 0.0030192281119525433, -0.07718431949615479], [-0.1925889104604721, -0.015353999100625515, -0.25511690974235535, 0.14365005493164062, -0.24327890574932098, -0.07226864993572235, 0.06525994837284088, -0.11953577399253845, -0.43843236565589905, 0.10505984723567963, -0.024509666487574577, -0.01762387715280056, -0.1228213757276535, 0.083385169506073, 0.03260831907391548, -0.11712974309921265], [0.26741763949394226, 0.022599155083298683, -0.09825213998556137, -0.22906900942325592, 0.20578277111053467, 0.08203104138374329, 0.051534563302993774, 0.24943265318870544, 0.23064389824867249, 0.017648018896579742, 0.04513390734791756, -0.16133752465248108, 0.05369775369763374, 0.24442560970783234, 0.011063219048082829, 0.11306608468294144], [0.0781790018081665, 0.02647051028907299, 0.08669548481702805, -0.0939057469367981, -0.0020336511079221964, 0.052557025104761124, -0.017360873520374298, -0.0942719578742981, -0.05541284382343292, 0.03137340396642685, -0.054132264107465744, 0.022212188690900803, 0.04413235932588577, -0.02078966610133648, 0.001572372391819954, 0.009372089989483356], [-0.13590028882026672, 0.008089224807918072, 0.05650419741868973, -0.08338923007249832, -0.08651748299598694, 0.010346516966819763, -0.014273970387876034, -0.2245177924633026, -0.16597135365009308, 0.01502173487097025, 0.015138822607696056, 0.010946008376777172, 0.040284596383571625, -0.046148404479026794, -0.00488568190485239, -0.005114047322422266], [-0.05186934396624565, -0.009751875884830952, -0.11892180144786835, 0.007284446153789759, 0.09508349746465683, 0.04646407440304756, -0.04086559638381004, -0.10938817262649536, -0.04523099958896637, -0.012422316707670689, -0.01892416551709175, -0.0013610708992928267, -0.06840206682682037, 0.03455634415149689, -0.026615506038069725, -0.043786630034446716], [-0.34436914324760437, 0.4181095063686371, 0.054849542677402496, 0.0694117620587349, 0.3608000576496124, -0.43487244844436646, -1.302172064781189, -0.29199355840682983, 0.2791523337364197, -0.1485563963651657, 0.04807344824075699, 0.3964827358722687, 0.709062933921814, 0.48350346088409424, -0.0005231901304796338, 0.5035189390182495], [-0.1977783888578415, 0.2530575096607208, -0.15912212431430817, 0.02918917126953602, 0.6143873333930969, -0.6616887450218201, -0.5456996560096741, -0.1846132129430771, -0.3395282030105591, 0.16095754504203796, 0.6801056265830994, -0.008205434307456017, 0.035256948322057724, -0.03427184373140335, -0.15636098384857178, 0.6062514781951904], [-0.42828890681266785, -0.021532313898205757, -0.12259943038225174, 0.9014146327972412, 0.7231635451316833, -1.3798574209213257, -0.5190719366073608, 0.05027404800057411, -1.2471623420715332, 0.2136526256799698, 0.8161046504974365, -0.5042453408241272, 0.07577834278345108, 0.21204321086406708, 0.2278466373682022, 0.21566900610923767], [-0.25903645157814026, 0.886439323425293, -0.2801181375980377, 0.4363458454608917, -0.7150565981864929, 0.29688867926597595, -0.07631075382232666, 0.19143256545066833, 0.10809369385242462, -0.22896237671375275, -0.30912530422210693, 0.7587215304374695, 0.0025759900454431772, -1.2609792947769165, 1.0823196172714233, -0.3473932147026062], [-0.48339611291885376, -0.5737985372543335, -0.21262826025485992, 0.7725264430046082, 0.0627744123339653, 0.2111445814371109, 0.3288952112197876, -0.12816952168941498, -1.2386573553085327, -1.7274905443191528, 1.0064067840576172, -0.1042284220457077, -0.3659834563732147, -0.3532015085220337, -0.49706053733825684, 0.9647401571273804], [-0.10813888162374496, 0.9724417328834534, -1.371914267539978, -1.4512168169021606, 0.006892041303217411, 0.5398975610733032, -0.2545946538448334, 0.14729949831962585, 0.5734186172485352, -0.959762692451477, -0.38244059681892395, 1.1960036754608154, -0.29076826572418213, 0.5415346026420593, -1.7476292848587036, 0.07752670347690582], [-0.03694284334778786, 0.8169269561767578, 0.7047246098518372, 1.2020900249481201, -1.060810923576355, -0.6975274085998535, 0.15573275089263916, -0.16149739921092987, -0.732233464717865, -0.07560403645038605, -0.4554438292980194, -1.7442234754562378, 1.538457989692688, 1.0917460918426514, 0.5996302962303162, -1.1925736665725708]], "1_weights": [[-0.2896521985530853, -0.13187649846076965, -0.18904881179332733, 0.05887656658887863, -0.22648735344409943, 0.06495208293199539, 0.2560714781284332, -0.25459814071655273, -0.0877951979637146, -0.2965792715549469, 0.19875456392765045, -0.2777506113052368, -0.33600035309791565, 0.0005893406341783702, -0.16481374204158783, -0.21156436204910278], [0.3446151316165924, 0.06343191117048264, 0.49701592326164246, 0.27447667717933655, -0.4406902492046356, -0.49560391902923584, -0.6864250302314758, 0.3150005042552948, 0.003330785082653165, -0.5124356150627136, -0.2599789500236511, -0.572299599647522, 0.36225372552871704, 0.4455735981464386, -0.2693929076194763, 0.5232881903648376], [-0.4409422278404236, 0.021852875128388405, 0.04948069900274277, -0.8416827917098999, -0.02699543908238411, -0.059052202850580215, 0.260442852973938, 0.6660250425338745, -0.958972156047821, 0.03670259937644005, -0.03564640134572983, 0.24892935156822205, -0.10657629370689392, -0.16948279738426208, -0.2612951993942261, 0.05868130922317505], [0.2788957953453064, 0.27292025089263916, 0.6432175636291504, -0.09272667020559311, 0.21522970497608185, -0.7585639357566833, 0.20120660960674286, 0.6866075992584229, 0.6660773754119873, -0.18043871223926544, 0.31965333223342896, 0.25675252079963684, -0.5018383264541626, 0.23234108090400696, -0.0947425588965416, 0.1648148000240326], [-0.21834143996238708, -0.05389789119362831, -0.23119215667247772, 0.5375844836235046, 0.48940637707710266, -0.3153817057609558, -0.3792988061904907, 0.14243397116661072, -1.844537377357483, 0.21358686685562134, -0.12803475558757782, -0.03665201738476753, 0.028472060337662697, 0.2741561233997345, -0.32593995332717896, 0.4401807487010956], [-0.07902567088603973, -0.17482613027095795, 0.3280922770500183, 0.5982827544212341, 0.43669798970222473, 0.3787250220775604, 0.1589861512184143, 0.16990554332733154, 0.07954180240631104, 0.02150397002696991, -0.36614182591438293, 0.29958486557006836, -0.2477053850889206, -0.5867235064506531, -0.39495187997817993, -0.07878517359495163], [-0.14665399491786957, 0.022556664422154427, 0.2450103610754013, -0.1276189386844635, 0.23130665719509125, 0.12693679332733154, 0.20476771891117096, -0.647230863571167, -0.10821829736232758, -0.04036897420883179, 0.023844849318265915, 0.41490909457206726, -0.08409486711025238, 0.06032254174351692, 0.3135865032672882, -0.00405771192163229], [0.33893710374832153, -0.06146315112709999, 0.354436993598938, -0.14927193522453308, -0.2793905735015869, -0.11821179836988449, -0.3723107874393463, 0.3016877770423889, 0.3360837399959564, -0.44517648220062256, -0.0811551883816719, 0.0962296724319458, 0.38875558972358704, -0.3183114230632782, -0.20420490205287933, -0.14053581655025482], [-0.52945476770401, 0.12281098961830139, -0.18536637723445892, -0.1779651641845703, 0.8052049279212952, -0.2372070550918579, -0.11787790805101395, 0.4930797219276428, -0.0012980435276404023, 0.559080958366394, 0.21900704503059387, -0.26720333099365234, -0.8944454789161682, -0.1885756552219391, -0.658341646194458, 0.5169540047645569], [-0.13789671659469604, 0.33619424700737, -0.3816717863082886, 0.23797118663787842, 0.38297024369239807, 0.5520709156990051, 0.5330827236175537, 0.564615786075592, 0.45040982961654663, 0.3769630491733551, 0.1316496729850769, 0.4817431569099426, 0.1857900321483612, 0.4251393973827362, 0.7388573884963989, 0.18768884241580963], [0.1038299947977066, -0.08285786211490631, 0.12654776871204376, 0.4626349210739136, -0.32504040002822876, 0.35393089056015015, 0.1710321605205536, -0.38235601782798767, 0.28514647483825684, -0.8417505025863647, -0.34324154257774353, -0.07275848835706711, 0.2601415812969208, 0.03912315145134926, -0.2583366334438324, 0.0036601051688194275], [1.0069173574447632, 0.06945963948965073, -0.03048812970519066, -0.06053007394075394, -0.36520183086395264, -0.4537437856197357, -0.47907933592796326, -0.9620413184165955, 0.004287943243980408, -0.0214944276958704, -0.07524247467517853, -0.8409146666526794, 0.6829162240028381, 0.7229339480400085, -0.010618752799928188, -0.21036477386951447], [1.0275629758834839, 0.9066834449768066, -0.44726651906967163, -0.44026997685432434, -0.7299858331680298, -0.6237006783485413, 0.23093417286872864, 0.17794685065746307, -0.06666912138462067, -0.18989983201026917, -0.004987216554582119, -0.30518946051597595, 0.16809456050395966, 0.9928675293922424, 0.49680715799331665, -0.42902234196662903], [0.0694371834397316, 0.3743646442890167, -0.29867199063301086, -0.83183753490448, 0.5642488598823547, 0.37171435356140137, 0.4267316162586212, 0.5932649970054626, -0.911274790763855, 0.5445321202278137, -0.41960570216178894, 0.27210885286331177, 0.4534544050693512, -0.21791769564151764, 0.6011275053024292, 0.13959422707557678], [0.44231879711151123, 0.10713502764701843, -0.6424964070320129, -0.3406127989292145, -0.29379186034202576, -0.5596386790275574, -0.42289936542510986, -1.1225112676620483, 0.1433044672012329, 0.7974189519882202, -0.2910879850387573, -0.23128074407577515, 0.6988617777824402, 0.6930525302886963, -0.5054196715354919, 0.29719778895378113], [0.2056240290403366, 0.32032161951065063, -0.016901817172765732, 0.2622160315513611, 0.02214070037007332, -0.1390070766210556, -0.006953378673642874, -0.09255177527666092, 0.22956068813800812, -0.44364649057388306, -0.14197443425655365, -0.006583117414265871, -0.9411936402320862, 0.5337764620780945, 0.4201698899269104, -0.020194444805383682]], "2_weights": [[0.6820341348648071, 0.6996097564697266, 0.7510168552398682], [0.3651047646999359, -0.02151225507259369, -0.6361697316169739], [0.747012197971344, 0.32389482855796814, -0.25842827558517456], [-0.6727023720741272, -0.7453319430351257, -0.8183732628822327], [-0.4327680766582489, -0.5839123725891113, -0.7755565643310547], [-0.6545245051383972, -0.8137627243995667, -1.0036929845809937], [-0.7752988338470459, -0.5839805603027344, -0.288872092962265], [-1.0128459930419922, -1.035452961921692, -1.0002968311309814], [0.8818402290344238, 0.8318321704864502, 0.6770802736282349], [1.4382667541503906, 1.1126594543457031, 0.3864178955554962], [0.5295891165733337, 0.14934378862380981, 0.11721190810203552], [-0.40546849370002747, -0.5213286876678467, -0.5537891983985901], [0.7507289052009583, 0.8090700507164001, 0.8281438946723938], [-0.9388903379440308, -0.9189049005508423, -0.8179454803466797], [1.0405179262161255, 1.1992616653442383, 1.3163779973983765], [-0.17209836840629578, 0.08211274445056915, 0.4224206209182739]], "0_bias": [-0.12381010502576828, -0.1826118379831314, 0.11464949697256088, -0.1343197226524353, -0.00464774202555418, 0.2692350447177887, 0.20688629150390625, -0.059721097350120544, 0.022430509328842163, 0.22240294516086578, 0.02582496404647827, -0.0421493835747242, -0.14847387373447418, 0.07389472424983978, 0.02711648866534233, 0.08459370583295822], "1_bias": [-0.17192032933235168, -0.02489086613059044, -0.5927689671516418, -0.569692850112915, 0.11424518376588821, 0.3672144114971161, 0.17862625420093536, -0.22479453682899475, -0.47630682587623596, -0.5402054786682129, -0.029697973281145096, -0.04399596527218819, -0.238389790058136, -0.2901279330253601, -0.22865691781044006, 0.35955631732940674], "2_bias": [-0.16399994492530823, -0.027387375012040138, 0.09760405123233795], "format": "png"}
