{"voxel_size": 0.0021171375, "block_size": 30, "grid_width": 669, "grid_height": 1000, "grid_depth": 696, "atlas_width": 2048, "atlas_height": 2048, "atlas_depth": 32, "num_slices": 8, "min_x": -0.6803187500000001, "min_y": -1.04369375, "min_z": -0.73386875, "atlas_blocks_x": 64, "atlas_blocks_y": 64, "atlas_blocks_z": 1, "input_height": 800.0, "input_width": 800.0, "input_focal": 1111.1110311937682, "worldspace_T_opengl": [[-1.0, 0.0, 0.0, 0.0], [0.0, 0.0, 1.0, 0.0], [0.0, 1.0, 0.0, 0.0], [0.0, 0.0, 0.0, 1.0]], "ndc": false, "0_weights": [[-0.06416359543800354, 0.009992888197302818, -0.5136235356330872, 0.2914885878562927, -0.11799420416355133, -0.10590782761573792, -0.5065972208976746, 0.07909747213125229, 0.21793720126152039, -0.08434557169675827, 0.36475861072540283, -0.1428333818912506, 0.34361571073532104, -0.16219371557235718, 0.43126386404037476, -0.1459217518568039], [-0.3003726601600647, -0.1527782380580902, -0.051870621740818024, -0.009638207033276558, 0.05639013275504112, -0.3116796612739563, -0.09851083159446716, 0.05584903433918953, 0.2880299389362335, -0.39012062549591064, -0.2658642530441284, 0.20611490309238434, 0.12383255362510681, 0.1132316142320633, 0.001999075524508953, 0.32805994153022766], [0.41593459248542786, -0.09187634289264679, -0.01892455480992794, 0.2242661416530609, -0.06695491820573807, 0.30157411098480225, 0.32896244525909424, 0.004967172630131245, 0.026264499872922897, 0.14578114449977875, -0.09923182427883148, 0.033873748034238815, -0.19394561648368835, -0.2519833445549011, 0.024095632135868073, -0.2714719772338867], [-0.07152548432350159, -0.21766406297683716, -0.25516343116760254, 0.3705556392669678, -0.17984922230243683, 0.18545113503932953, 0.005817936733365059, 0.22672078013420105, 0.522016704082489, -0.034516263753175735, 0.03176256641745567, -0.215670645236969, 0.09158709645271301, -0.08650470525026321, 0.0007095406181178987, 0.0068977950140833855], [-0.18317067623138428, -0.6242165565490723, 0.19407226145267487, 0.33281153440475464, 0.43028074502944946, -0.34912624955177307, 0.2014649659395218, 0.11277893930673599, -0.05609972029924393, -0.014240052551031113, -0.05333861708641052, 0.10043292492628098, -0.1616899073123932, -0.22977031767368317, 0.20777037739753723, -0.21610482037067413], [0.15382297337055206, -0.05506125092506409, 0.014166626147925854, -0.4148041605949402, -0.21514169871807098, 0.057167477905750275, -0.26825016736984253, -0.06350679695606232, 0.4418056011199951, -0.43219026923179626, -0.36111822724342346, -0.06660788506269455, 0.32018670439720154, 0.080450139939785, -0.2522585093975067, -0.22360670566558838], [-0.411347895860672, 0.09338844567537308, 0.11899875104427338, 0.49569016695022583, 0.16715623438358307, 0.13728652894496918, -0.39761146903038025, 0.1212763637304306, 0.16277126967906952, -0.16226498782634735, 0.4217061996459961, -0.17678554356098175, 0.17395532131195068, 0.024868305772542953, 0.13783499598503113, 0.1633177101612091], [0.16151316463947296, -0.1330529749393463, 0.10671237111091614, -0.05989765003323555, 0.15092015266418457, 0.09954217076301575, -0.33751752972602844, -0.10108603537082672, -0.03397313132882118, -0.4230944514274597, -0.08972128480672836, 0.38857826590538025, 0.20719784498214722, 0.128190815448761, -0.11302386224269867, 0.05767984688282013], [-0.2968810498714447, 0.10761639475822449, 0.11066549271345139, 0.22083809971809387, 0.02889663353562355, 0.09012728929519653, -0.021436171606183052, 0.11959685385227203, -0.09370991587638855, -0.04161182790994644, -0.29390469193458557, 0.09039350599050522, 0.07432132959365845, 0.25429269671440125, -0.06129426509141922, -0.06118381768465042], [0.2958245277404785, 0.018472732976078987, -0.018077371641993523, -0.2369290143251419, 0.0981958881020546, 0.05673767998814583, 0.052907854318618774, -0.0053450921550393105, -0.17211152613162994, 0.12930910289287567, 0.008506350219249725, 0.03312433883547783, 0.258440226316452, -0.06832639873027802, 0.01728539541363716, -0.11930657923221588], [-0.16338904201984406, -0.0816599577665329, -0.198616161942482, 0.05017229542136192, -0.2644619941711426, -0.061620600521564484, 0.023074155673384666, -0.13510629534721375, -0.002660180442035198, -0.01543570775538683, -0.17633245885372162, -0.08142340183258057, 0.20458674430847168, 0.007571289781481028, 0.05898520350456238, 0.04939170554280281], [-0.16329842805862427, -0.04187634959816933, -0.14697766304016113, 0.19834092259407043, -0.30494779348373413, -0.3476238250732422, 0.19885775446891785, 0.1793091893196106, 0.03695034235715866, 0.218059703707695, 0.13985370099544525, 0.19578437507152557, -0.12095248699188232, 0.04013583064079285, 0.3100828528404236, 0.01782468520104885], [-0.05134682357311249, 0.00022697128588333726, -0.023872006684541702, 0.03291138634085655, -0.0295880064368248, -0.020275844261050224, 0.013847979716956615, -0.04565470293164253, -0.015227020718157291, -0.011537227779626846, 0.022073477506637573, -0.024945683777332306, 0.016777774319052696, -0.011843282729387283, 0.023685939610004425, 0.00990653783082962], [0.005620226729661226, 0.03495467081665993, 0.021924827247858047, 0.012188953347504139, 0.09285853058099747, -0.011480143293738365, 0.006426187232136726, -0.18911293148994446, 0.006279926747083664, 0.015528963878750801, 0.028754357248544693, -0.05298061668872833, -0.02079603634774685, 0.027898551896214485, -0.007100802846252918, 0.008603828959167004], [0.13786667585372925, -0.008844937197864056, -0.0359223298728466, -0.07265686988830566, 0.06408044695854187, 0.026847299188375473, 0.08189892023801804, 0.2404441237449646, -0.024937216192483902, 0.05663935840129852, -0.07799717038869858, -0.024755172431468964, -0.04530639946460724, 0.005848435685038567, -0.06677139550447464, -0.0234540905803442], [0.28275153040885925, 0.13034166395664215, 0.4970032870769501, -0.26552054286003113, -0.24760298430919647, 0.34830138087272644, 0.3514336347579956, -0.23785313963890076, -0.09677540510892868, 0.07964465022087097, 0.30771803855895996, -0.10171213001012802, -0.22161564230918884, 0.26496773958206177, -0.4158362150192261, -0.20290224254131317], [-0.278852254152298, -0.22344373166561127, 0.3918166756629944, -0.018949436023831367, -0.0347045361995697, -0.018249129876494408, 0.40629664063453674, -0.27863243222236633, -0.2751401960849762, -0.0954570546746254, 0.2708771824836731, 0.307726114988327, -0.3077404201030731, 0.3030391037464142, 0.047347087413072586, -0.04191100224852562], [-0.15447792410850525, -0.3214603662490845, -0.06978953629732132, 0.2992055416107178, -0.18984146416187286, 0.24990017712116241, 0.15738879144191742, -0.22761096060276031, -0.1692182868719101, 0.46614620089530945, 0.434032678604126, -0.069735586643219, 0.2480730265378952, -0.14635828137397766, -0.10085820406675339, -0.2771642804145813], [0.14426477253437042, 0.02073470689356327, 0.06117257475852966, -0.0007360096205957234, 0.18332640826702118, 0.21672426164150238, -0.17176689207553864, -0.194931760430336, -0.11989846080541611, 0.4535006284713745, -0.15877260267734528, 0.0016488982364535332, -0.026224298402667046, -0.330030232667923, -0.2011106163263321, 0.19511373341083527], [-0.3613409399986267, 0.24107781052589417, 0.12693746387958527, 0.049085840582847595, 0.1572486311197281, -0.20532181859016418, -0.017323344945907593, 0.06543946266174316, -0.3191765546798706, 0.18541650474071503, 0.21066848933696747, 0.05979469418525696, 0.051600296050310135, -0.25039100646972656, -0.20769786834716797, 0.3332883417606354], [-0.025468982756137848, 0.3270898759365082, 0.20837795734405518, -0.2725992798805237, 0.06193794682621956, -0.1264241486787796, 0.20133095979690552, -0.22151128947734833, 0.0697634220123291, 0.40340927243232727, 0.06666276603937149, 0.11745043843984604, 0.031107356771826744, -0.06132816895842552, 0.19280759990215302, 0.2694298028945923], [0.05193310230970383, -0.14479903876781464, 0.06721387803554535, 0.05421818792819977, 0.10931847244501114, 0.08801398426294327, -0.09201265871524811, 0.13375414907932281, 0.09160865098237991, -0.08116558194160461, 0.09081961959600449, -0.05334662273526192, 0.10601592063903809, -0.004124158527702093, 0.08765585720539093, -0.03291037306189537], [0.0467059463262558, -0.13340166211128235, 0.028734710067510605, 0.06591879576444626, -0.1552402377128601, 0.08492320775985718, -0.23753049969673157, -0.12556004524230957, -0.09017214179039001, 0.05340185761451721, 0.22945527732372284, 0.2569333612918854, -0.06491632014513016, -0.006947223097085953, 0.06948354095220566, -0.015617414377629757], [0.5273458957672119, 0.1005021184682846, -0.0817030742764473, -0.269645631313324, 0.31212374567985535, 0.11366492509841919, 0.442271888256073, 0.3305481970310211, -0.11187109351158142, 0.10314255952835083, -0.11879872530698776, -0.08949913829565048, 0.26807838678359985, -0.02949816919863224, -0.3018258213996887, -0.07304946333169937], [0.004086805507540703, 0.001573259592987597, 0.017185823991894722, -0.0078072925098240376, -0.013093107379972935, 0.008104120381176472, 0.021622464060783386, -0.10398726910352707, -0.03570146486163139, 0.015889987349510193, -0.02791144698858261, -0.0057657696306705475, -0.06815633177757263, 0.008019226603209972, -0.029717110097408295, -0.02191864512860775], [0.01587553322315216, -0.056068938225507736, -0.007792866323143244, 0.06485624611377716, -0.13604962825775146, -0.06344287097454071, -0.024088673293590546, -0.16128289699554443, 0.011631510220468044, 0.015909666195511818, -0.027257168665528297, 0.0183281097561121, 0.11936191469430923, -0.006091447547078133, 0.0358346663415432, 0.03352432698011398], [-0.056455790996551514, -0.03025864064693451, 0.03526061773300171, -0.10511593520641327, 0.04582814872264862, 0.048752445727586746, -0.09842517226934433, -0.12701547145843506, 0.01181948184967041, -0.018123269081115723, -0.08157317340373993, -0.08369339257478714, -0.03014669381082058, -0.044402528554201126, -0.06522586196660995, -0.004812218248844147], [0.23716479539871216, -0.6084423661231995, -0.18138177692890167, 0.5088763236999512, -0.6282733678817749, -0.12052194029092789, 0.5507559180259705, -0.27376294136047363, 0.43918976187705994, 0.4910520911216736, 0.1507088840007782, 0.2586514949798584, 0.3679974377155304, 1.0584602355957031, 0.6065952181816101, -0.1705055981874466], [-0.25579833984375, -0.09178801625967026, -0.2240860015153885, -0.9636626243591309, 1.221665859222412, 0.2520676255226135, 0.7267551422119141, -0.2439919263124466, -0.29859787225723267, 0.33793896436691284, 0.20383772253990173, -0.07369028776884079, -1.2368413209915161, -0.853415310382843, -0.33809301257133484, 0.6052752137184143], [0.084385447204113, -0.28960299491882324, -0.390639990568161, 0.19538116455078125, -0.7361161112785339, 0.5106035470962524, -0.6570557355880737, -0.034944161772727966, 0.6485955119132996, 0.15550896525382996, -0.5178255438804626, -0.5777449607849121, 0.3282666504383087, 0.9805417656898499, 0.6500341296195984, -0.07464447617530823], [-1.0795496702194214, 0.6595443487167358, -1.3674041032791138, -0.027373189106583595, -1.4035753011703491, 0.8416895270347595, -0.06562674045562744, 0.0775604173541069, 1.3233891725540161, -0.8146558403968811, -1.5208581686019897, 1.5082968473434448, -1.2662198543548584, -0.6694058775901794, 1.4931480884552002, -0.08299733698368073], [1.5349338054656982, -0.42494502663612366, -0.9514294266700745, -1.4477564096450806, 0.025793826207518578, -0.15101881325244904, -0.8898760080337524, -0.19704444706439972, -1.740769863128662, -1.3334481716156006, -0.8468590378761292, -1.0927445888519287, -0.10152000933885574, -0.10512155294418335, 0.5930115580558777, 1.0917818546295166], [-0.8712964057922363, 0.37828636169433594, -0.05729692429304123, 0.8332574367523193, 0.48045018315315247, 0.6075599789619446, -0.2562173902988434, 0.1005062609910965, 0.20944823324680328, -1.7382606267929077, -0.3220244348049164, -0.30758142471313477, -1.6842435598373413, 1.3816921710968018, 0.340580016374588, 0.8372983932495117], [0.06613048911094666, 1.2223823070526123, 0.6127916574478149, 0.6764875054359436, 0.10026971250772476, -1.093416690826416, -0.6763690114021301, -0.22601988911628723, -0.43965256214141846, -0.34190717339515686, -0.3926209509372711, -0.4564376175403595, 0.9392743706703186, 0.08583663403987885, -0.21198222041130066, -1.179391622543335]], "1_weights": [[-0.5964905619621277, -0.4250020980834961, -0.40067702531814575, 0.16642633080482483, -0.7333493232727051, -0.24261797964572906, -0.4507920742034912, -0.13108275830745697, -0.3490930497646332, 0.20748861134052277, 0.5949921011924744, -0.5693336129188538, 0.083464115858078, -0.12578441202640533, 0.09280894696712494, -0.42104393243789673], [0.5021088123321533, -0.14289753139019012, -0.059452999383211136, 0.41071340441703796, -0.19752167165279388, 0.07971220463514328, -0.31026554107666016, 0.4458686411380768, 0.48372533917427063, -0.03696560114622116, -0.972952127456665, -0.17613129317760468, 0.8377380967140198, 0.13533642888069153, -0.740082859992981, -0.054090652614831924], [-0.23662298917770386, 0.29893574118614197, -0.36261245608329773, -0.05720164254307747, 0.2997738718986511, 0.4776214063167572, 0.5167860984802246, -0.18560799956321716, -0.1256610006093979, 0.18180270493030548, -0.0865040123462677, 0.43712201714515686, 0.25323373079299927, 0.04275266453623772, 0.05394096300005913, -0.16094043850898743], [0.3091556131839752, -0.03320247679948807, 0.2652342617511749, 0.2074161320924759, 0.20507244765758514, -0.6479355096817017, -0.15114383399486542, 0.8058485984802246, -0.000981014221906662, -0.3853053152561188, 0.37385496497154236, 0.2295391857624054, 0.40810254216194153, -0.177424356341362, -0.3317481279373169, -0.09350477159023285], [-0.09955090284347534, -0.13507522642612457, 0.6231404542922974, 0.29692140221595764, 0.29996711015701294, -0.0985453799366951, -0.3997059464454651, 0.3546070456504822, 0.10083382576704025, -0.2390836775302887, -0.10625267773866653, 0.19363945722579956, -0.4426628053188324, 0.004084055311977863, -0.2342648208141327, 0.035860370844602585], [-0.09192858636379242, 0.29098114371299744, -0.25091552734375, 0.18047799170017242, 0.21045681834220886, 0.21008330583572388, 0.1875147819519043, 0.4243001639842987, 0.43201175332069397, -0.2898012101650238, -0.5770531296730042, 0.28595614433288574, -0.254485547542572, 0.08369983732700348, 0.09755636006593704, 0.08798123896121979], [-0.3541261851787567, -0.07590776681900024, 0.41667401790618896, -0.016992656514048576, 0.34396785497665405, 0.2832700312137604, 0.20703397691249847, -0.8197349905967712, -0.049336694180965424, 0.2304701805114746, 0.09267522394657135, 0.23235860466957092, -0.12761086225509644, 0.023284852504730225, 0.395589143037796, 0.10782716423273087], [0.22346307337284088, -0.06387464702129364, 0.38332945108413696, -0.07313255220651627, -0.1520717591047287, -0.1735079288482666, -0.21649862825870514, 0.48348408937454224, 0.2759353220462799, -0.461069792509079, -0.0811551883816719, 0.219485342502594, 0.2717389166355133, -0.25228071212768555, -0.20310229063034058, -0.07989954203367233], [-0.9840845465660095, 1.2324448823928833, -0.045234084129333496, 0.6519681215286255, 0.8266642093658447, 0.6668738126754761, 1.2614108324050903, 0.9998549818992615, -2.3548696041107178, -3.853938102722168, 1.0666855573654175, 1.0149232149124146, -0.9771855473518372, 0.43233606219291687, -1.669555902481079, 0.7431917786598206], [-0.11837893724441528, -0.10813836753368378, 0.16557972133159637, -0.3366434574127197, 0.7288740277290344, 1.1869293451309204, 0.9493143558502197, -0.0010308962082490325, -2.423384428024292, -0.6763651371002197, -0.024988476186990738, 0.8001662492752075, 0.015366807579994202, 0.27420204877853394, 0.29094943404197693, 0.6216848492622375], [0.12160912156105042, -0.12068650871515274, -0.12183337658643723, 0.016764016821980476, -0.1726643145084381, 0.7325849533081055, -0.13109365105628967, -0.7477515339851379, -0.09477922320365906, -0.11682764440774918, -0.0011975998058915138, 0.028724709525704384, -0.3135495185852051, -0.06377184391021729, 0.24522395431995392, 0.1634758710861206], [0.6818017959594727, 0.3576837182044983, 0.3027585446834564, 0.27669522166252136, 0.0254141204059124, -0.03720429167151451, -0.13269366323947906, -0.2953469455242157, -0.6848363280296326, -1.0541356801986694, 0.006137551739811897, -0.5592789053916931, -0.09907130151987076, 0.03497949242591858, -0.25263112783432007, 0.17378917336463928], [0.9204488396644592, -0.0010779004078358412, -0.4598633050918579, -0.23233729600906372, -0.30294445157051086, -0.8798694610595703, -0.21095378696918488, 0.8035356402397156, 0.581575870513916, -0.3651719391345978, 0.41165533661842346, -0.08721888065338135, 0.387698769569397, -1.4964144229888916, 0.23477622866630554, -0.8617831468582153], [0.36988359689712524, 0.40016284584999084, -0.4414740204811096, -0.9055718779563904, 0.5576499700546265, -0.09615840762853622, 0.4470260441303253, -0.043055277317762375, -0.2917184829711914, 0.002571319229900837, -0.540705144405365, 0.33845221996307373, -0.36222079396247864, 0.11694032698869705, -0.1724187135696411, 0.46837201714515686], [0.4937412738800049, 0.05075851455330849, -0.44180047512054443, 0.26725560426712036, 0.12141092121601105, -0.27203506231307983, 0.29662197828292847, -0.14525867998600006, 0.3017347455024719, 0.24243591725826263, -0.43380406498908997, 0.3299522399902344, 0.002971002133563161, 0.20482316613197327, 0.5266444683074951, 0.29326480627059937], [-0.5883752107620239, 0.17417821288108826, 0.6173195242881775, 0.32628345489501953, 0.5396718978881836, -0.24096424877643585, 0.35038962960243225, -0.004317367449402809, 0.6211894750595093, -0.195994034409523, -0.027945948764681816, 0.3226042091846466, -0.34461167454719543, 0.39778637886047363, 0.16626162827014923, -0.45041394233703613]], "2_weights": [[0.6822943091392517, 0.7731053829193115, 0.7922483682632446], [0.32505136728286743, -0.5605850219726562, -0.31935733556747437], [1.0691399574279785, 1.4251608848571777, 1.245965600013733], [-0.5453869700431824, -0.4427065849304199, -0.761748194694519], [-0.4299713671207428, -0.4766121804714203, -0.653634786605835], [-0.7287566661834717, -0.8448213338851929, -0.9023492932319641], [-0.7894425392150879, -0.01900482550263405, -0.4756205379962921], [-0.5986273884773254, -1.1927597522735596, -1.2229959964752197], [-0.3741479218006134, -0.502173900604248, -0.5017267465591431], [0.6634455323219299, 0.1210193932056427, 0.2599450647830963], [0.9844326376914978, 1.1491432189941406, 1.192197561264038], [-0.27672189474105835, -0.40285027027130127, -0.22548571228981018], [0.5197728276252747, 0.8338788151741028, 0.7047406435012817], [-0.3532800078392029, -0.02601025626063347, 0.3939499258995056], [-0.09460805356502533, -0.713705837726593, -0.27214109897613525], [0.03709070011973381, -0.08122023195028305, 0.6142585873603821]], "0_bias": [0.022507786750793457, -0.06325992196798325, 0.1532326191663742, 0.048516225069761276, 0.0023464527912437916, 0.011866655200719833, 0.14532944560050964, -0.07743945717811584, 0.011408397927880287, 0.17371602356433868, 0.1483069211244583, -0.010124480351805687, -0.042521487921476364, 4.273288868716918e-05, -0.06389268487691879, 0.029780566692352295], "1_bias": [-0.03394102677702904, -0.03464532271027565, -0.0023132218047976494, 0.1631869077682495, 0.010918553918600082, 0.20691350102424622, 0.16817732155323029, -0.5602238774299622, 0.201951265335083, 0.3389696180820465, -0.04122116416692734, 0.03288037329912186, 0.23321637511253357, -0.29327237606048584, -0.10943980515003204, -0.2317751944065094], "2_bias": [0.08463923633098602, 0.19479763507843018, -0.05913873389363289], "format": "png"}